{
    "name": "Senza System",
	"creator": "Furballman",
	"version": "1.0",
	"date": "2016/08/16",
	"description": "Players spawn on one semi-big island. Navalcontroll, telleporters and amphibious units are the key to victory. Good for 1v1 and shared teamgames",
    "planets": [
        {
            "name": "Gamergate",
            "mass": 10000,
            "position_x": 26600,
            "position_y": 1700,
            "velocity_x": -8.735426902770996,
            "velocity_y": 136.68365478515625,
            "required_thrust_to_move": 0,
            "starting_planet": true,
            "respawn": false,
            "start_destroyed": false,
            "min_spawn_delay": 0,
            "max_spawn_delay": 0,
            "planet": {
                "seed": 799276736,
                "radius": 650,
                "heightRange": 35,
                "waterHeight": 55,
                "waterDepth": 100,
                "temperature": 80,
                "metalDensity": 0,
                "metalClusters": 0,
                "metalSpotLimit": -1,
                "biomeScale": 50,
                "biome": "tropical",
                "symmetryType": "terrain and CSG",
                "symmetricalMetal": true,
                "symmetricalStarts": true,
                "numArmies": 2,
                "landingZonesPerArmy": 0,
                "landingZoneSize": 0
            },
            "source": {
                "landing_zones": {
                    "rules": [
                        {
                            "max": 10,
                            "min": 0
                        },
                        {
                            "max": 10,
                            "min": 0
                        }
                    ],
                    "list": [
                        [
                            279.10565185546875,
                            363.98809814453125,
                            473.19097900390625
                        ],
                        [
                            279.10565185546875,
                            363.98809814453125,
                            -473.19097900390625
                        ]
                    ]
                },
                "metal_spots": [
                    [
                        -37.30257034301758,
                        472.55596923828125,
                        464.9137268066406
                    ],
                    [
                        -37.30257034301758,
                        472.55596923828125,
                        -464.9137268066406
                    ],
                    [
                        -391.08660888671875,
                        54.82762908935547,
                        524.9454956054688
                    ],
                    [
                        -391.08660888671875,
                        54.82762908935547,
                        -524.9454956054688
                    ],
                    [
                        -464.5616149902344,
                        44.29991149902344,
                        462.26580810546875
                    ],
                    [
                        -464.5616149902344,
                        44.29991149902344,
                        -462.26580810546875
                    ],
                    [
                        -461.0964660644531,
                        134.80235290527344,
                        447.77532958984375
                    ],
                    [
                        -461.0964660644531,
                        134.80235290527344,
                        -447.77532958984375
                    ],
                    [
                        -393.50146484375,
                        144.20632934570312,
                        506.4871826171875
                    ],
                    [
                        -393.50146484375,
                        144.20632934570312,
                        -506.4871826171875
                    ],
                    [
                        -65.12150573730469,
                        48.10602951049805,
                        653.8433837890625
                    ],
                    [
                        -65.12150573730469,
                        48.10602951049805,
                        -653.8433837890625
                    ],
                    [
                        28.360748291015625,
                        77.31613159179688,
                        658.8819580078125
                    ],
                    [
                        28.360748291015625,
                        77.31613159179688,
                        -658.8819580078125
                    ],
                    [
                        126.00764465332031,
                        -32.84357452392578,
                        643.4849853515625
                    ],
                    [
                        126.00764465332031,
                        -32.84357452392578,
                        -643.4849853515625
                    ],
                    [
                        0.6414947509765625,
                        535.5927124023438,
                        -384.5079345703125
                    ],
                    [
                        0.6414947509765625,
                        535.5927124023438,
                        384.5079345703125
                    ],
                    [
                        534.3278198242188,
                        164.840576171875,
                        -340.014404296875
                    ],
                    [
                        534.3278198242188,
                        164.840576171875,
                        340.014404296875
                    ],
                    [
                        570.309814453125,
                        105.68182373046875,
                        -303.68145751953125
                    ],
                    [
                        570.309814453125,
                        105.68182373046875,
                        303.68145751953125
                    ],
                    [
                        469.7158203125,
                        -109.21621704101562,
                        -448.18701171875
                    ],
                    [
                        469.7158203125,
                        -109.21621704101562,
                        448.18701171875
                    ],
                    [
                        340.9542236328125,
                        -159.3299560546875,
                        -541.7020263671875
                    ],
                    [
                        340.9542236328125,
                        -159.3299560546875,
                        541.7020263671875
                    ],
                    [
                        408.9276123046875,
                        -437.73876953125,
                        -220.62857055664062
                    ],
                    [
                        408.9276123046875,
                        -437.73876953125,
                        220.62857055664062
                    ],
                    [
                        31.335693359375,
                        -572.0687255859375,
                        -282.7870178222656
                    ],
                    [
                        31.335693359375,
                        -572.0687255859375,
                        282.7870178222656
                    ],
                    [
                        329.664794921875,
                        -536.82275390625,
                        -102.44140625
                    ],
                    [
                        329.664794921875,
                        -536.82275390625,
                        102.44140625
                    ],
                    [
                        216.52545166015625,
                        -590.4071044921875,
                        -108.91693115234375
                    ],
                    [
                        216.52545166015625,
                        -590.4071044921875,
                        108.91693115234375
                    ],
                    [
                        620.45361328125,
                        120.14306640625,
                        -109.0694580078125
                    ],
                    [
                        620.45361328125,
                        120.14306640625,
                        109.0694580078125
                    ],
                    [
                        -442.570068359375,
                        452.57177734375,
                        167.54620361328125
                    ],
                    [
                        -442.570068359375,
                        452.57177734375,
                        -167.54620361328125
                    ],
                    [
                        -547.4801635742188,
                        -322.6504821777344,
                        -157.4250030517578
                    ],
                    [
                        -547.4801635742188,
                        -322.6504821777344,
                        157.4250030517578
                    ],
                    [
                        -494.159912109375,
                        -423.60052490234375,
                        -76.55644989013672
                    ],
                    [
                        -494.159912109375,
                        -423.60052490234375,
                        76.55644989013672
                    ],
                    [
                        -355.95501708984375,
                        -491.9862365722656,
                        -249.94467163085938
                    ],
                    [
                        -355.95501708984375,
                        -491.9862365722656,
                        249.94467163085938
                    ],
                    [
                        71.94635009765625,
                        -196.37139892578125,
                        -609.0384521484375
                    ],
                    [
                        71.94635009765625,
                        -196.37139892578125,
                        609.0384521484375
                    ],
                    [
                        -142.240234375,
                        -97.420654296875,
                        -622.8485107421875
                    ],
                    [
                        -142.240234375,
                        -97.420654296875,
                        622.8485107421875
                    ],
                    [
                        161.03355407714844,
                        156.6583251953125,
                        632.8807373046875
                    ],
                    [
                        161.03355407714844,
                        156.6583251953125,
                        -632.8807373046875
                    ],
                    [
                        -33.074859619140625,
                        231.02435302734375,
                        624.092529296875
                    ],
                    [
                        -355.984130859375,
                        550.2545776367188,
                        28.416976928710938
                    ],
                    [
                        -355.984130859375,
                        550.2545776367188,
                        -28.416976928710938
                    ],
                    [
                        304.66845703125,
                        530.1500244140625,
                        183.06280517578125
                    ],
                    [
                        304.66845703125,
                        530.1500244140625,
                        -183.06280517578125
                    ],
                    [
                        400.9569091796875,
                        493.5645751953125,
                        55.55809783935547
                    ],
                    [
                        400.9569091796875,
                        493.5645751953125,
                        -55.55809783935547
                    ],
                    [
                        348.86370849609375,
                        533.3951416015625,
                        34.79554748535156
                    ],
                    [
                        348.86370849609375,
                        533.3951416015625,
                        -34.79554748535156
                    ],
                    [
                        451.9951171875,
                        449.3365478515625,
                        -35.796104431152344
                    ],
                    [
                        451.9951171875,
                        449.3365478515625,
                        35.796104431152344
                    ],
                    [
                        515.0009155273438,
                        282.020263671875,
                        267.5829162597656
                    ],
                    [
                        515.0009155273438,
                        282.020263671875,
                        -267.5829162597656
                    ],
                    [
                        621.5457763671875,
                        -104.15240478515625,
                        -129.7420654296875
                    ],
                    [
                        621.5457763671875,
                        -104.15240478515625,
                        129.7420654296875
                    ],
                    [
                        310.3609924316406,
                        -250.0880126953125,
                        -498.6444091796875
                    ],
                    [
                        310.3609924316406,
                        -250.0880126953125,
                        498.6444091796875
                    ],
                    [
                        -250.96484375,
                        328.9180908203125,
                        494.744873046875
                    ],
                    [
                        -250.96484375,
                        328.9180908203125,
                        -494.744873046875
                    ],
                    [
                        -120.4761962890625,
                        500.8905029296875,
                        -384.4818115234375
                    ],
                    [
                        -156.68499755859375,
                        -352.1688232421875,
                        -508.7506103515625
                    ],
                    [
                        -156.68499755859375,
                        -352.1688232421875,
                        508.7506103515625
                    ],
                    [
                        293.52154541015625,
                        416.2183837890625,
                        -395.8345947265625
                    ],
                    [
                        293.52154541015625,
                        416.2183837890625,
                        395.8345947265625
                    ],
                    [
                        248.25372314453125,
                        311.4197998046875,
                        -530.6558837890625
                    ],
                    [
                        248.25372314453125,
                        311.4197998046875,
                        530.6558837890625
                    ],
                    [
                        194.33807373046875,
                        405.39483642578125,
                        -484.5528564453125
                    ],
                    [
                        194.33807373046875,
                        405.39483642578125,
                        484.5528564453125
                    ],
                    [
                        346.01702880859375,
                        320.06707763671875,
                        -463.5711669921875
                    ],
                    [
                        346.01702880859375,
                        320.06707763671875,
                        463.5711669921875
                    ]
                ],
                "brushes": [
                    {
                        "no_features": false,
                        "mergeable": false,
                        "pathable": false,
                        "flooded": false,
                        "twinId": 5,
                        "scale": [
                            0.7089710831642151,
                            0.7089710831642151,
                            0.7089710831642151
                        ],
                        "weightScale": [
                            1,
                            1,
                            1
                        ],
                        "weight": [
                            1,
                            1,
                            1,
                            1
                        ],
                        "weightHard": false,
                        "height": 670.9181518554688,
                        "position": [
                            103.39764404296875,
                            142.02391052246094,
                            647.5101318359375
                        ],
                        "mirrored": false,
                        "proj": "BP_Bend",
                        "transform": [
                            -0.5112518668174744,
                            0.47887712717056274,
                            0.1092621237039566,
                            103.39764404296875,
                            -0.4563286304473877,
                            -0.521421492099762,
                            0.1500791758298874,
                            142.02391052246094,
                            0.18172970414161682,
                            0.03789833188056946,
                            0.6842353940010071,
                            647.5100708007812
                        ],
                        "op": "BO_Add",
                        "rotation": 3.877501964569092,
                        "spec": "/pa/terrain/jungle/brushes/jungle_plateau_01.json"
                    },
                    {
                        "no_features": false,
                        "mergeable": false,
                        "pathable": false,
                        "flooded": false,
                        "twinId": 7,
                        "scale": [
                            1.1408696174621582,
                            1.1408696174621582,
                            1.1408696174621582
                        ],
                        "weightScale": [
                            1,
                            1,
                            1
                        ],
                        "weight": [
                            1,
                            1,
                            1,
                            1
                        ],
                        "weightHard": false,
                        "height": 671.1386108398438,
                        "position": [
                            90.02427673339844,
                            401.974853515625,
                            529.84814453125
                        ],
                        "mirrored": false,
                        "proj": "BP_Bend",
                        "transform": [
                            0.21864376962184906,
                            1.1092157363891602,
                            0.15303237736225128,
                            90.02425384521484,
                            -0.9096320867538452,
                            0.08502915501594543,
                            0.6833175420761108,
                            401.9747619628906,
                            0.6529530882835388,
                            -0.25297045707702637,
                            0.9006894826889038,
                            529.8480224609375
                        ],
                        "op": "BO_Add",
                        "rotation": 4.861688613891602,
                        "spec": "/pa/terrain/jungle/brushes/jungle_plateau_01.json"
                    },
                    {
                        "no_features": false,
                        "mergeable": false,
                        "pathable": false,
                        "flooded": false,
                        "twinId": 17,
                        "scale": [
                            1,
                            1,
                            1
                        ],
                        "weightScale": [
                            1,
                            1,
                            1
                        ],
                        "weight": [
                            1,
                            1,
                            1,
                            1
                        ],
                        "weightHard": false,
                        "height": 670.3853759765625,
                        "position": [
                            51.070316314697266,
                            197.60195922851562,
                            638.5623168945312
                        ],
                        "mirrored": false,
                        "proj": "BP_Bend",
                        "transform": [
                            0.995150089263916,
                            0.06223117560148239,
                            0.07618054747581482,
                            51.0703239440918,
                            -0.08209951967000961,
                            0.9520383477210999,
                            0.29475879669189453,
                            197.60198974609375,
                            -0.05418361350893974,
                            -0.29958364367485046,
                            0.9525302052497864,
                            638.5623168945312
                        ],
                        "op": "BO_Add",
                        "rotation": 6.209197998046875,
                        "spec": "/pa/terrain/jungle/brushes/jungle_volcano_06.json"
                    },
                    {
                        "no_features": false,
                        "mergeable": false,
                        "pathable": false,
                        "flooded": false,
                        "twinId": 5,
                        "scale": [
                            0.7089710831642151,
                            0.7089710831642151,
                            0.7089710831642151
                        ],
                        "weightScale": [
                            1,
                            1,
                            1
                        ],
                        "weight": [
                            1,
                            1,
                            1,
                            1
                        ],
                        "weightHard": false,
                        "height": 670.9181518554688,
                        "position": [
                            103.39764404296875,
                            142.02391052246094,
                            647.5101318359375
                        ],
                        "mirrored": true,
                        "proj": "BP_Bend",
                        "transform": [
                            -0.5112518668174744,
                            0.47887712717056274,
                            0.1092621237039566,
                            103.39764404296875,
                            -0.4563286304473877,
                            -0.521421492099762,
                            0.1500791758298874,
                            142.02391052246094,
                            -0.18172970414161682,
                            -0.03789833188056946,
                            -0.6842353940010071,
                            -647.5100708007812
                        ],
                        "op": "BO_Add",
                        "rotation": 3.877501964569092,
                        "spec": "/pa/terrain/jungle/brushes/jungle_plateau_01.json"
                    },
                    {
                        "no_features": false,
                        "mergeable": false,
                        "pathable": false,
                        "flooded": false,
                        "twinId": 7,
                        "scale": [
                            1.1408696174621582,
                            1.1408696174621582,
                            1.1408696174621582
                        ],
                        "weightScale": [
                            1,
                            1,
                            1
                        ],
                        "weight": [
                            1,
                            1,
                            1,
                            1
                        ],
                        "weightHard": false,
                        "height": 671.1386108398438,
                        "position": [
                            90.02427673339844,
                            401.974853515625,
                            529.84814453125
                        ],
                        "mirrored": true,
                        "proj": "BP_Bend",
                        "transform": [
                            0.21864376962184906,
                            1.1092157363891602,
                            0.15303237736225128,
                            90.02425384521484,
                            -0.9096320867538452,
                            0.08502915501594543,
                            0.6833175420761108,
                            401.9747619628906,
                            -0.6529530882835388,
                            0.25297045707702637,
                            -0.9006894826889038,
                            -529.8480224609375
                        ],
                        "op": "BO_Add",
                        "rotation": 4.861688613891602,
                        "spec": "/pa/terrain/jungle/brushes/jungle_plateau_01.json"
                    },
                    {
                        "no_features": false,
                        "mergeable": false,
                        "pathable": false,
                        "flooded": false,
                        "twinId": 17,
                        "scale": [
                            1,
                            1,
                            1
                        ],
                        "weightScale": [
                            1,
                            1,
                            1
                        ],
                        "weight": [
                            1,
                            1,
                            1,
                            1
                        ],
                        "weightHard": false,
                        "height": 670.3853759765625,
                        "position": [
                            51.070316314697266,
                            197.60195922851562,
                            638.5623168945312
                        ],
                        "mirrored": true,
                        "proj": "BP_Bend",
                        "transform": [
                            0.995150089263916,
                            0.06223117560148239,
                            0.07618054747581482,
                            51.0703239440918,
                            -0.08209951967000961,
                            0.9520383477210999,
                            0.29475879669189453,
                            197.60198974609375,
                            0.05418361350893974,
                            0.29958364367485046,
                            -0.9525302052497864,
                            -638.5623168945312
                        ],
                        "op": "BO_Add",
                        "rotation": 6.209197998046875,
                        "spec": "/pa/terrain/jungle/brushes/jungle_volcano_06.json"
                    },
                    {
                        "no_features": false,
                        "mergeable": false,
                        "pathable": false,
                        "flooded": false,
                        "twinId": 18,
                        "scale": [
                            0.8500000238418579,
                            0.8500000238418579,
                            0.8500000238418579
                        ],
                        "weightScale": [
                            1,
                            1,
                            1
                        ],
                        "weight": [
                            1,
                            1,
                            1,
                            1
                        ],
                        "weightHard": false,
                        "height": 660.76806640625,
                        "position": [
                            142.939453125,
                            480.373046875,
                            -430.6094665527344
                        ],
                        "mirrored": false,
                        "proj": "BP_Bend",
                        "transform": [
                            0.735805094242096,
                            -0.3837721347808838,
                            0.18387466669082642,
                            142.93942260742188,
                            -0.3837721347808838,
                            -0.43973350524902344,
                            0.6179430484771729,
                            480.37298583984375,
                            -0.18387466669082642,
                            -0.6179430484771729,
                            -0.5539284348487854,
                            -430.6096496582031
                        ],
                        "op": "BO_Add",
                        "rotation": 0,
                        "spec": "/pa/terrain/lava/brushes/lava_volcano_04.json"
                    },
                    {
                        "no_features": false,
                        "mergeable": false,
                        "pathable": false,
                        "flooded": false,
                        "twinId": 18,
                        "scale": [
                            0.8500000238418579,
                            0.8500000238418579,
                            0.8500000238418579
                        ],
                        "weightScale": [
                            1,
                            1,
                            1
                        ],
                        "weight": [
                            1,
                            1,
                            1,
                            1
                        ],
                        "weightHard": false,
                        "height": 660.76806640625,
                        "position": [
                            142.939453125,
                            480.373046875,
                            -430.6094665527344
                        ],
                        "mirrored": true,
                        "proj": "BP_Bend",
                        "transform": [
                            0.735805094242096,
                            -0.3837721347808838,
                            0.18387466669082642,
                            142.93942260742188,
                            -0.3837721347808838,
                            -0.43973350524902344,
                            0.6179430484771729,
                            480.37298583984375,
                            0.18387466669082642,
                            0.6179430484771729,
                            0.5539284348487854,
                            430.60968017578125
                        ],
                        "op": "BO_Add",
                        "rotation": 0,
                        "spec": "/pa/terrain/lava/brushes/lava_volcano_04.json"
                    },
                    {
                        "no_features": false,
                        "mergeable": false,
                        "pathable": false,
                        "flooded": false,
                        "twinId": 21,
                        "scale": [
                            1,
                            1,
                            1
                        ],
                        "weightScale": [
                            1,
                            1,
                            1
                        ],
                        "weight": [
                            1,
                            1,
                            1,
                            1
                        ],
                        "weightHard": false,
                        "height": 654.3491821289062,
                        "position": [
                            396.3486328125,
                            337.8682556152344,
                            -396.1384582519531
                        ],
                        "mirrored": false,
                        "proj": "BP_Bend",
                        "transform": [
                            0.07024013996124268,
                            -0.7925758361816406,
                            0.6057140827178955,
                            396.3485107421875,
                            -0.7925758361816406,
                            0.3243669867515564,
                            0.5163423418998718,
                            337.8681945800781,
                            -0.6057140827178955,
                            -0.5163423418998718,
                            -0.6053929328918457,
                            -396.13836669921875
                        ],
                        "op": "BO_Add",
                        "rotation": 0,
                        "spec": "/pa/terrain/mountain/brushes/mountain_plateau_02.json"
                    },
                    {
                        "no_features": false,
                        "mergeable": false,
                        "pathable": false,
                        "flooded": false,
                        "twinId": 21,
                        "scale": [
                            1,
                            1,
                            1
                        ],
                        "weightScale": [
                            1,
                            1,
                            1
                        ],
                        "weight": [
                            1,
                            1,
                            1,
                            1
                        ],
                        "weightHard": false,
                        "height": 654.3491821289062,
                        "position": [
                            396.3486328125,
                            337.8682556152344,
                            -396.1384582519531
                        ],
                        "mirrored": true,
                        "proj": "BP_Bend",
                        "transform": [
                            0.07024013996124268,
                            -0.7925758361816406,
                            0.6057140827178955,
                            396.3485107421875,
                            -0.7925758361816406,
                            0.3243669867515564,
                            0.5163423418998718,
                            337.8681945800781,
                            0.6057140827178955,
                            0.5163423418998718,
                            0.6053929328918457,
                            396.13836669921875
                        ],
                        "op": "BO_Add",
                        "rotation": 0,
                        "spec": "/pa/terrain/mountain/brushes/mountain_plateau_02.json"
                    },
                    {
                        "no_features": false,
                        "mergeable": false,
                        "pathable": false,
                        "flooded": false,
                        "twinId": 22,
                        "scale": [
                            1,
                            1,
                            1
                        ],
                        "weightScale": [
                            1,
                            1,
                            1
                        ],
                        "weight": [
                            1,
                            1,
                            1,
                            1
                        ],
                        "weightHard": false,
                        "height": 654.2561645507812,
                        "position": [
                            410.877685546875,
                            322.88897705078125,
                            -393.6666259765625
                        ],
                        "mirrored": false,
                        "proj": "BP_Bend",
                        "transform": [
                            0.009806036949157715,
                            -0.7781457901000977,
                            0.6280072927474976,
                            410.8776550292969,
                            -0.7781457901000977,
                            0.3884926438331604,
                            0.49352070689201355,
                            322.88897705078125,
                            -0.6280072927474976,
                            -0.49352070689201355,
                            -0.6017012596130371,
                            -393.666748046875
                        ],
                        "op": "BO_Add",
                        "rotation": 0,
                        "spec": "/pa/terrain/mountain/brushes/mountain_plateau_04.json"
                    },
                    {
                        "no_features": false,
                        "mergeable": false,
                        "pathable": false,
                        "flooded": false,
                        "twinId": 22,
                        "scale": [
                            1,
                            1,
                            1
                        ],
                        "weightScale": [
                            1,
                            1,
                            1
                        ],
                        "weight": [
                            1,
                            1,
                            1,
                            1
                        ],
                        "weightHard": false,
                        "height": 654.2561645507812,
                        "position": [
                            410.877685546875,
                            322.88897705078125,
                            -393.6666259765625
                        ],
                        "mirrored": true,
                        "proj": "BP_Bend",
                        "transform": [
                            0.009806036949157715,
                            -0.7781457901000977,
                            0.6280072927474976,
                            410.877685546875,
                            -0.7781457901000977,
                            0.3884926438331604,
                            0.49352070689201355,
                            322.88897705078125,
                            0.6280072927474976,
                            0.49352070689201355,
                            0.6017012596130371,
                            393.666748046875
                        ],
                        "op": "BO_Add",
                        "rotation": 0,
                        "spec": "/pa/terrain/mountain/brushes/mountain_plateau_04.json"
                    },
                    {
                        "no_features": true,
                        "mergeable": false,
                        "pathable": false,
                        "flooded": false,
                        "twinId": 23,
                        "scale": [
                            1,
                            1,
                            1
                        ],
                        "weightScale": [
                            1,
                            1,
                            1
                        ],
                        "weight": [
                            1,
                            1,
                            1,
                            1
                        ],
                        "weightHard": false,
                        "height": 655.5501098632812,
                        "position": [
                            514.2262573242188,
                            257.9942321777344,
                            -314.25506591796875
                        ],
                        "mirrored": false,
                        "proj": "BP_Bend",
                        "transform": [
                            0.18470202386379242,
                            -0.5920906066894531,
                            0.7844196557998657,
                            514.2263793945312,
                            -0.8860567808151245,
                            0.2449873387813568,
                            0.3935539126396179,
                            257.99432373046875,
                            -0.42519238591194153,
                            -0.7677305936813354,
                            -0.47937631607055664,
                            -314.25518798828125
                        ],
                        "op": "BO_Add",
                        "rotation": -0.599999725818634,
                        "spec": "/pa/terrain/mountain/brushes/mountain_mountain_07.json"
                    },
                    {
                        "no_features": true,
                        "mergeable": false,
                        "pathable": false,
                        "flooded": false,
                        "twinId": 23,
                        "scale": [
                            1,
                            1,
                            1
                        ],
                        "weightScale": [
                            1,
                            1,
                            1
                        ],
                        "weight": [
                            1,
                            1,
                            1,
                            1
                        ],
                        "weightHard": false,
                        "height": 655.5501098632812,
                        "position": [
                            514.2262573242188,
                            257.9942321777344,
                            -314.25506591796875
                        ],
                        "mirrored": true,
                        "proj": "BP_Bend",
                        "transform": [
                            0.18470202386379242,
                            -0.5920906066894531,
                            0.7844196557998657,
                            514.2263793945312,
                            -0.8860567808151245,
                            0.2449873387813568,
                            0.3935539126396179,
                            257.99432373046875,
                            0.42519238591194153,
                            0.7677305936813354,
                            0.47937631607055664,
                            314.25518798828125
                        ],
                        "op": "BO_Add",
                        "rotation": -0.599999725818634,
                        "spec": "/pa/terrain/mountain/brushes/mountain_mountain_07.json"
                    },
                    {
                        "no_features": false,
                        "mergeable": false,
                        "pathable": false,
                        "flooded": false,
                        "twinId": 24,
                        "scale": [
                            1,
                            1,
                            1
                        ],
                        "weightScale": [
                            1,
                            1,
                            1
                        ],
                        "weight": [
                            1,
                            1,
                            1,
                            1
                        ],
                        "weightHard": false,
                        "height": 654.5106201171875,
                        "position": [
                            489.16815185546875,
                            297.49591064453125,
                            -317.1668701171875
                        ],
                        "mirrored": false,
                        "proj": "BP_Bend",
                        "transform": [
                            -0.08374488353729248,
                            -0.6590978503227234,
                            0.7473800778388977,
                            489.168212890625,
                            -0.6590978503227234,
                            0.5991584658622742,
                            0.45453187823295593,
                            297.4959411621094,
                            -0.7473800778388977,
                            -0.45453187823295593,
                            -0.4845864772796631,
                            -317.1669921875
                        ],
                        "op": "BO_Add",
                        "rotation": 0,
                        "spec": "/pa/terrain/mountain/brushes/mountain_plateau_02.json"
                    },
                    {
                        "no_features": false,
                        "mergeable": false,
                        "pathable": false,
                        "flooded": false,
                        "twinId": 24,
                        "scale": [
                            1,
                            1,
                            1
                        ],
                        "weightScale": [
                            1,
                            1,
                            1
                        ],
                        "weight": [
                            1,
                            1,
                            1,
                            1
                        ],
                        "weightHard": false,
                        "height": 654.5106201171875,
                        "position": [
                            489.16815185546875,
                            297.49591064453125,
                            -317.1668701171875
                        ],
                        "mirrored": true,
                        "proj": "BP_Bend",
                        "transform": [
                            -0.08374488353729248,
                            -0.6590978503227234,
                            0.7473800778388977,
                            489.168212890625,
                            -0.6590978503227234,
                            0.5991584658622742,
                            0.45453187823295593,
                            297.4959411621094,
                            0.7473800778388977,
                            0.45453187823295593,
                            0.4845864772796631,
                            317.1669921875
                        ],
                        "op": "BO_Add",
                        "rotation": 0,
                        "spec": "/pa/terrain/mountain/brushes/mountain_plateau_02.json"
                    },
                    {
                        "no_features": true,
                        "mergeable": false,
                        "pathable": false,
                        "flooded": false,
                        "twinId": 25,
                        "scale": [
                            1,
                            1,
                            1
                        ],
                        "weightScale": [
                            1,
                            1,
                            1
                        ],
                        "weight": [
                            1,
                            1,
                            1,
                            1
                        ],
                        "weightHard": false,
                        "height": 654.208984375,
                        "position": [
                            454.17333984375,
                            304.64111328125,
                            -359.0400390625
                        ],
                        "mirrored": false,
                        "proj": "BP_Bend",
                        "transform": [
                            0.5383954644203186,
                            -0.4776726961135864,
                            0.6942328214645386,
                            454.17333984375,
                            -0.8420301675796509,
                            -0.2722921073436737,
                            0.4656633138656616,
                            304.64111328125,
                            -0.033400505781173706,
                            -0.8352760076522827,
                            -0.5488156080245972,
                            -359.04010009765625
                        ],
                        "op": "BO_Add",
                        "rotation": -0.9399994015693665,
                        "spec": "/pa/terrain/mountain/brushes/mountain_mountain_06.json"
                    },
                    {
                        "no_features": true,
                        "mergeable": false,
                        "pathable": false,
                        "flooded": false,
                        "twinId": 25,
                        "scale": [
                            1,
                            1,
                            1
                        ],
                        "weightScale": [
                            1,
                            1,
                            1
                        ],
                        "weight": [
                            1,
                            1,
                            1,
                            1
                        ],
                        "weightHard": false,
                        "height": 654.208984375,
                        "position": [
                            454.17333984375,
                            304.64111328125,
                            -359.0400390625
                        ],
                        "mirrored": true,
                        "proj": "BP_Bend",
                        "transform": [
                            0.5383954644203186,
                            -0.4776726961135864,
                            0.6942328214645386,
                            454.17333984375,
                            -0.8420301675796509,
                            -0.2722921073436737,
                            0.4656633138656616,
                            304.6411437988281,
                            0.033400505781173706,
                            0.8352760076522827,
                            0.5488156080245972,
                            359.04010009765625
                        ],
                        "op": "BO_Add",
                        "rotation": -0.9399994015693665,
                        "spec": "/pa/terrain/mountain/brushes/mountain_mountain_06.json"
                    },
                    {
                        "no_features": false,
                        "mergeable": false,
                        "pathable": false,
                        "flooded": false,
                        "twinId": 27,
                        "scale": [
                            1,
                            1,
                            1
                        ],
                        "weightScale": [
                            1,
                            1,
                            1
                        ],
                        "weight": [
                            1,
                            1,
                            1,
                            1
                        ],
                        "weightHard": false,
                        "height": 654.3851318359375,
                        "position": [
                            376.54705810546875,
                            353.5619201660156,
                            -401.7788391113281
                        ],
                        "mirrored": false,
                        "proj": "BP_Bend",
                        "transform": [
                            0.1422497034072876,
                            -0.8053916096687317,
                            0.5754210948944092,
                            376.5469970703125,
                            -0.8053916096687317,
                            0.24377095699310303,
                            0.5402963757514954,
                            353.5619201660156,
                            -0.5754210948944092,
                            -0.5402963757514954,
                            -0.6139793395996094,
                            -401.7789611816406
                        ],
                        "op": "BO_Add",
                        "rotation": 0,
                        "spec": "/pa/terrain/mountain/brushes/mountain_plateau_04.json"
                    },
                    {
                        "no_features": false,
                        "mergeable": false,
                        "pathable": false,
                        "flooded": false,
                        "twinId": 27,
                        "scale": [
                            1,
                            1,
                            1
                        ],
                        "weightScale": [
                            1,
                            1,
                            1
                        ],
                        "weight": [
                            1,
                            1,
                            1,
                            1
                        ],
                        "weightHard": false,
                        "height": 654.3851318359375,
                        "position": [
                            376.54705810546875,
                            353.5619201660156,
                            -401.7788391113281
                        ],
                        "mirrored": true,
                        "proj": "BP_Bend",
                        "transform": [
                            0.1422497034072876,
                            -0.8053916096687317,
                            0.5754210948944092,
                            376.5469970703125,
                            -0.8053916096687317,
                            0.24377095699310303,
                            0.5402963757514954,
                            353.5619201660156,
                            0.5754210948944092,
                            0.5402963757514954,
                            0.6139793395996094,
                            401.7789611816406
                        ],
                        "op": "BO_Add",
                        "rotation": 0,
                        "spec": "/pa/terrain/mountain/brushes/mountain_plateau_04.json"
                    },
                    {
                        "no_features": false,
                        "mergeable": false,
                        "pathable": false,
                        "flooded": false,
                        "twinId": 37,
                        "scale": [
                            1,
                            1,
                            1
                        ],
                        "weightScale": [
                            1,
                            1,
                            1
                        ],
                        "weight": [
                            1,
                            1,
                            1,
                            1
                        ],
                        "weightHard": false,
                        "height": 654.6988525390625,
                        "position": [
                            -165.2837677001953,
                            389.46295166015625,
                            -499.63037109375
                        ],
                        "mirrored": false,
                        "proj": "BP_Bend",
                        "transform": [
                            0.730911374092102,
                            0.6340612769126892,
                            -0.25245770812034607,
                            -165.2837677001953,
                            0.6340612769126892,
                            -0.4940568208694458,
                            0.5948733687400818,
                            389.4629211425781,
                            0.25245770812034607,
                            -0.5948733687400818,
                            -0.7631454467773438,
                            -499.6304626464844
                        ],
                        "op": "BO_Add",
                        "rotation": 0,
                        "spec": "/pa/terrain/mountain/brushes/mountain_plateau_04.json"
                    },
                    {
                        "no_features": false,
                        "mergeable": false,
                        "pathable": false,
                        "flooded": false,
                        "twinId": 37,
                        "scale": [
                            1,
                            1,
                            1
                        ],
                        "weightScale": [
                            1,
                            1,
                            1
                        ],
                        "weight": [
                            1,
                            1,
                            1,
                            1
                        ],
                        "weightHard": false,
                        "height": 654.6988525390625,
                        "position": [
                            -165.2837677001953,
                            389.46295166015625,
                            -499.63037109375
                        ],
                        "mirrored": true,
                        "proj": "BP_Bend",
                        "transform": [
                            0.730911374092102,
                            0.6340612769126892,
                            -0.25245770812034607,
                            -165.2837677001953,
                            0.6340612769126892,
                            -0.4940568208694458,
                            0.5948733687400818,
                            389.4629211425781,
                            -0.25245770812034607,
                            0.5948733687400818,
                            0.7631454467773438,
                            499.6304626464844
                        ],
                        "op": "BO_Add",
                        "rotation": 0,
                        "spec": "/pa/terrain/mountain/brushes/mountain_plateau_04.json"
                    },
                    {
                        "no_features": true,
                        "mergeable": false,
                        "pathable": false,
                        "flooded": false,
                        "twinId": 38,
                        "scale": [
                            1,
                            1,
                            1
                        ],
                        "weightScale": [
                            1,
                            1,
                            1
                        ],
                        "weight": [
                            1,
                            1,
                            1,
                            1
                        ],
                        "weightHard": false,
                        "height": 654.2880249023438,
                        "position": [
                            -140.49496459960938,
                            426.9394226074219,
                            -475.4752197265625
                        ],
                        "mirrored": false,
                        "proj": "BP_Bend",
                        "transform": [
                            0.8312848806381226,
                            0.5126955509185791,
                            -0.21472954750061035,
                            -140.49496459960938,
                            0.5126955509185791,
                            -0.5579912662506104,
                            0.6525251865386963,
                            426.9394226074219,
                            0.21472954750061035,
                            -0.6525251865386963,
                            -0.7267063856124878,
                            -475.47528076171875
                        ],
                        "op": "BO_Add",
                        "rotation": 0,
                        "spec": "/pa/terrain/mountain/brushes/mountain_mountain_07.json"
                    },
                    {
                        "no_features": true,
                        "mergeable": false,
                        "pathable": false,
                        "flooded": false,
                        "twinId": 38,
                        "scale": [
                            1,
                            1,
                            1
                        ],
                        "weightScale": [
                            1,
                            1,
                            1
                        ],
                        "weight": [
                            1,
                            1,
                            1,
                            1
                        ],
                        "weightHard": false,
                        "height": 654.2880249023438,
                        "position": [
                            -140.49496459960938,
                            426.9394226074219,
                            -475.4752197265625
                        ],
                        "mirrored": true,
                        "proj": "BP_Bend",
                        "transform": [
                            0.8312848806381226,
                            0.5126955509185791,
                            -0.21472954750061035,
                            -140.49496459960938,
                            0.5126955509185791,
                            -0.5579912662506104,
                            0.6525251865386963,
                            426.9394226074219,
                            -0.21472954750061035,
                            0.6525251865386963,
                            0.7267063856124878,
                            475.47528076171875
                        ],
                        "op": "BO_Add",
                        "rotation": 0,
                        "spec": "/pa/terrain/mountain/brushes/mountain_mountain_07.json"
                    },
                    {
                        "no_features": true,
                        "mergeable": false,
                        "pathable": false,
                        "flooded": false,
                        "twinId": 39,
                        "scale": [
                            1,
                            1,
                            1
                        ],
                        "weightScale": [
                            1,
                            1,
                            1
                        ],
                        "weight": [
                            1,
                            1,
                            1,
                            1
                        ],
                        "weightHard": false,
                        "height": 654.72412109375,
                        "position": [
                            -102.64263916015625,
                            475.52984619140625,
                            -438.177490234375
                        ],
                        "mirrored": false,
                        "proj": "BP_Bend",
                        "transform": [
                            0.925690233707428,
                            0.3442672789096832,
                            -0.15677234530448914,
                            -102.64263916015625,
                            0.3442672789096832,
                            -0.5949450731277466,
                            0.7263056039810181,
                            475.52978515625,
                            0.15677234530448914,
                            -0.7263056039810181,
                            -0.6692547798156738,
                            -438.17724609375
                        ],
                        "op": "BO_Add",
                        "rotation": 0,
                        "spec": "/pa/terrain/mountain/brushes/mountain_mountain_06.json"
                    },
                    {
                        "no_features": true,
                        "mergeable": false,
                        "pathable": false,
                        "flooded": false,
                        "twinId": 39,
                        "scale": [
                            1,
                            1,
                            1
                        ],
                        "weightScale": [
                            1,
                            1,
                            1
                        ],
                        "weight": [
                            1,
                            1,
                            1,
                            1
                        ],
                        "weightHard": false,
                        "height": 654.72412109375,
                        "position": [
                            -102.64263916015625,
                            475.52984619140625,
                            -438.177490234375
                        ],
                        "mirrored": true,
                        "proj": "BP_Bend",
                        "transform": [
                            0.925690233707428,
                            0.3442672789096832,
                            -0.15677234530448914,
                            -102.64263916015625,
                            0.3442672789096832,
                            -0.5949450731277466,
                            0.7263056039810181,
                            475.52978515625,
                            -0.15677234530448914,
                            0.7263056039810181,
                            0.6692547798156738,
                            438.17724609375
                        ],
                        "op": "BO_Add",
                        "rotation": 0,
                        "spec": "/pa/terrain/mountain/brushes/mountain_mountain_06.json"
                    },
                    {
                        "no_features": true,
                        "mergeable": false,
                        "pathable": false,
                        "flooded": false,
                        "twinId": 40,
                        "scale": [
                            1,
                            1,
                            1
                        ],
                        "weightScale": [
                            1,
                            1,
                            1
                        ],
                        "weight": [
                            1,
                            1,
                            1,
                            1
                        ],
                        "weightHard": false,
                        "height": 654.3267211914062,
                        "position": [
                            -76.01531982421875,
                            525.0693969726562,
                            -382.9715576171875
                        ],
                        "mirrored": false,
                        "proj": "BP_Bend",
                        "transform": [
                            0.9674561023712158,
                            0.2247941941022873,
                            -0.11617334187030792,
                            -76.01531982421875,
                            0.2247941941022873,
                            -0.5527468919754028,
                            0.8024575114250183,
                            525.0693969726562,
                            0.11617334187030792,
                            -0.8024575114250183,
                            -0.585290789604187,
                            -382.9714050292969
                        ],
                        "op": "BO_Add",
                        "rotation": 0,
                        "spec": "/pa/terrain/mountain/brushes/mountain_mountain_07.json"
                    },
                    {
                        "no_features": true,
                        "mergeable": false,
                        "pathable": false,
                        "flooded": false,
                        "twinId": 40,
                        "scale": [
                            1,
                            1,
                            1
                        ],
                        "weightScale": [
                            1,
                            1,
                            1
                        ],
                        "weight": [
                            1,
                            1,
                            1,
                            1
                        ],
                        "weightHard": false,
                        "height": 654.3267211914062,
                        "position": [
                            -76.01531982421875,
                            525.0693969726562,
                            -382.9715576171875
                        ],
                        "mirrored": true,
                        "proj": "BP_Bend",
                        "transform": [
                            0.9674561023712158,
                            0.2247941941022873,
                            -0.11617334187030792,
                            -76.01531982421875,
                            0.2247941941022873,
                            -0.5527468919754028,
                            0.8024575114250183,
                            525.0693969726562,
                            -0.11617334187030792,
                            0.8024575114250183,
                            0.585290789604187,
                            382.9714050292969
                        ],
                        "op": "BO_Add",
                        "rotation": 0,
                        "spec": "/pa/terrain/mountain/brushes/mountain_mountain_07.json"
                    },
                    {
                        "no_features": false,
                        "mergeable": false,
                        "pathable": false,
                        "flooded": false,
                        "twinId": 41,
                        "scale": [
                            1,
                            1,
                            1
                        ],
                        "weightScale": [
                            1,
                            1,
                            1
                        ],
                        "weight": [
                            1,
                            1,
                            1,
                            1
                        ],
                        "weightHard": false,
                        "height": 654.262939453125,
                        "position": [
                            -62.73689270019531,
                            543.852783203125,
                            -358.2572021484375
                        ],
                        "mirrored": false,
                        "proj": "BP_Bend",
                        "transform": [
                            0.9796767234802246,
                            0.17617806792259216,
                            -0.09588940441608429,
                            -62.73688507080078,
                            0.17617806792259216,
                            -0.5272502899169922,
                            0.8312448859214783,
                            543.8527221679688,
                            0.09588940441608429,
                            -0.8312448859214783,
                            -0.5475735664367676,
                            -358.257080078125
                        ],
                        "op": "BO_Add",
                        "rotation": 0,
                        "spec": "/pa/terrain/mountain/brushes/mountain_plateau_04.json"
                    },
                    {
                        "no_features": false,
                        "mergeable": false,
                        "pathable": false,
                        "flooded": false,
                        "twinId": 41,
                        "scale": [
                            1,
                            1,
                            1
                        ],
                        "weightScale": [
                            1,
                            1,
                            1
                        ],
                        "weight": [
                            1,
                            1,
                            1,
                            1
                        ],
                        "weightHard": false,
                        "height": 654.262939453125,
                        "position": [
                            -62.73689270019531,
                            543.852783203125,
                            -358.2572021484375
                        ],
                        "mirrored": true,
                        "proj": "BP_Bend",
                        "transform": [
                            0.9796767234802246,
                            0.17617806792259216,
                            -0.09588940441608429,
                            -62.736881256103516,
                            0.17617806792259216,
                            -0.5272502899169922,
                            0.8312448859214783,
                            543.8527221679688,
                            -0.09588940441608429,
                            0.8312448859214783,
                            0.5475735664367676,
                            358.2570495605469
                        ],
                        "op": "BO_Add",
                        "rotation": 0,
                        "spec": "/pa/terrain/mountain/brushes/mountain_plateau_04.json"
                    },
                    {
                        "no_features": true,
                        "mergeable": false,
                        "pathable": false,
                        "flooded": false,
                        "twinId": 42,
                        "scale": [
                            1,
                            1,
                            1
                        ],
                        "weightScale": [
                            1,
                            1,
                            1
                        ],
                        "weight": [
                            1,
                            1,
                            1,
                            1
                        ],
                        "weightHard": false,
                        "height": 654.529296875,
                        "position": [
                            -44.57830810546875,
                            560.4193725585938,
                            -335.188720703125
                        ],
                        "mirrored": false,
                        "proj": "BP_Bend",
                        "transform": [
                            0.990492582321167,
                            0.1195235475897789,
                            -0.06810741871595383,
                            -44.57830047607422,
                            0.1195235475897789,
                            -0.5025990009307861,
                            0.8562173843383789,
                            560.4193725585938,
                            0.06810741871595383,
                            -0.8562173843383789,
                            -0.5121064186096191,
                            -335.18865966796875
                        ],
                        "op": "BO_Add",
                        "rotation": 0,
                        "spec": "/pa/terrain/mountain/brushes/mountain_mountain_06.json"
                    },
                    {
                        "no_features": true,
                        "mergeable": false,
                        "pathable": false,
                        "flooded": false,
                        "twinId": 42,
                        "scale": [
                            1,
                            1,
                            1
                        ],
                        "weightScale": [
                            1,
                            1,
                            1
                        ],
                        "weight": [
                            1,
                            1,
                            1,
                            1
                        ],
                        "weightHard": false,
                        "height": 654.529296875,
                        "position": [
                            -44.57830810546875,
                            560.4193725585938,
                            -335.188720703125
                        ],
                        "mirrored": true,
                        "proj": "BP_Bend",
                        "transform": [
                            0.990492582321167,
                            0.1195235475897789,
                            -0.06810741871595383,
                            -44.57830047607422,
                            0.1195235475897789,
                            -0.5025990009307861,
                            0.8562173843383789,
                            560.4193725585938,
                            -0.06810741871595383,
                            0.8562173843383789,
                            0.5121064186096191,
                            335.18865966796875
                        ],
                        "op": "BO_Add",
                        "rotation": 0,
                        "spec": "/pa/terrain/mountain/brushes/mountain_mountain_06.json"
                    },
                    {
                        "no_features": true,
                        "mergeable": false,
                        "pathable": false,
                        "flooded": false,
                        "twinId": 43,
                        "scale": [
                            1,
                            1,
                            1
                        ],
                        "weightScale": [
                            1,
                            1,
                            1
                        ],
                        "weight": [
                            1,
                            1,
                            1,
                            1
                        ],
                        "weightHard": false,
                        "height": 654.2606201171875,
                        "position": [
                            3.708831787109375,
                            597.0712890625,
                            -267.486572265625
                        ],
                        "mirrored": false,
                        "proj": "BP_Bend",
                        "transform": [
                            0.9999456405639648,
                            -0.00875095184892416,
                            0.005668737925589085,
                            3.708832025527954,
                            -0.00875095184892416,
                            -0.4087836742401123,
                            0.912589430809021,
                            597.0713500976562,
                            -0.005668737925589085,
                            -0.912589430809021,
                            -0.40883803367614746,
                            -267.48663330078125
                        ],
                        "op": "BO_Add",
                        "rotation": 0,
                        "spec": "/pa/terrain/mountain/brushes/mountain_mountain_04.json"
                    },
                    {
                        "no_features": true,
                        "mergeable": false,
                        "pathable": false,
                        "flooded": false,
                        "twinId": 43,
                        "scale": [
                            1,
                            1,
                            1
                        ],
                        "weightScale": [
                            1,
                            1,
                            1
                        ],
                        "weight": [
                            1,
                            1,
                            1,
                            1
                        ],
                        "weightHard": false,
                        "height": 654.2606201171875,
                        "position": [
                            3.708831787109375,
                            597.0712890625,
                            -267.486572265625
                        ],
                        "mirrored": true,
                        "proj": "BP_Bend",
                        "transform": [
                            0.9999456405639648,
                            -0.00875095184892416,
                            0.005668737925589085,
                            3.708832025527954,
                            -0.00875095184892416,
                            -0.4087836742401123,
                            0.912589430809021,
                            597.0713500976562,
                            0.005668737925589085,
                            0.912589430809021,
                            0.40883803367614746,
                            267.48663330078125
                        ],
                        "op": "BO_Add",
                        "rotation": 0,
                        "spec": "/pa/terrain/mountain/brushes/mountain_mountain_04.json"
                    },
                    {
                        "no_features": false,
                        "mergeable": false,
                        "pathable": false,
                        "flooded": false,
                        "twinId": 44,
                        "scale": [
                            1,
                            1,
                            1
                        ],
                        "weightScale": [
                            1,
                            1,
                            1
                        ],
                        "weight": [
                            1,
                            1,
                            1,
                            1
                        ],
                        "weightHard": false,
                        "height": 654.2113647460938,
                        "position": [
                            82.99630737304688,
                            569.2163696289062,
                            -311.6036376953125
                        ],
                        "mirrored": false,
                        "proj": "BP_Bend",
                        "transform": [
                            0.9692671895027161,
                            -0.2107759267091751,
                            0.12686468660831451,
                            82.99632263183594,
                            -0.2107759267091751,
                            -0.4455716609954834,
                            0.8700803518295288,
                            569.2164306640625,
                            -0.12686468660831451,
                            -0.8700803518295288,
                            -0.4763045310974121,
                            -311.6038513183594
                        ],
                        "op": "BO_Add",
                        "rotation": 0,
                        "spec": "/pa/terrain/lava/brushes/lava_volcano_06.json"
                    },
                    {
                        "no_features": false,
                        "mergeable": false,
                        "pathable": false,
                        "flooded": false,
                        "twinId": 44,
                        "scale": [
                            1,
                            1,
                            1
                        ],
                        "weightScale": [
                            1,
                            1,
                            1
                        ],
                        "weight": [
                            1,
                            1,
                            1,
                            1
                        ],
                        "weightHard": false,
                        "height": 654.2113647460938,
                        "position": [
                            82.99630737304688,
                            569.2163696289062,
                            -311.6036376953125
                        ],
                        "mirrored": true,
                        "proj": "BP_Bend",
                        "transform": [
                            0.9692671895027161,
                            -0.2107759267091751,
                            0.12686468660831451,
                            82.99632263183594,
                            -0.2107759267091751,
                            -0.4455716609954834,
                            0.8700803518295288,
                            569.2164306640625,
                            0.12686468660831451,
                            0.8700803518295288,
                            0.4763045310974121,
                            311.6038513183594
                        ],
                        "op": "BO_Add",
                        "rotation": 0,
                        "spec": "/pa/terrain/lava/brushes/lava_volcano_06.json"
                    },
                    {
                        "no_features": false,
                        "mergeable": false,
                        "pathable": false,
                        "flooded": false,
                        "twinId": 47,
                        "scale": [
                            1,
                            1,
                            1
                        ],
                        "weightScale": [
                            1,
                            1,
                            1
                        ],
                        "weight": [
                            1,
                            1,
                            1,
                            1
                        ],
                        "weightHard": false,
                        "height": 655.0116577148438,
                        "position": [
                            -348.726806640625,
                            150.83572387695312,
                            -533.5526733398438
                        ],
                        "mirrored": false,
                        "proj": "BP_Bend",
                        "transform": [
                            -0.8462578654289246,
                            -0.02000129222869873,
                            -0.5323978066444397,
                            -348.7267761230469,
                            -0.16752982139587402,
                            0.958595335483551,
                            0.23027943074703217,
                            150.83570861816406,
                            0.5057481527328491,
                            0.28406834602355957,
                            -0.8145697116851807,
                            -533.5526733398438
                        ],
                        "op": "BO_Add",
                        "rotation": -0.9199994206428528,
                        "spec": "/pa/terrain/generic/brushes/unit_cannon_wreckage.json"
                    },
                    {
                        "no_features": false,
                        "mergeable": false,
                        "pathable": false,
                        "flooded": false,
                        "twinId": 47,
                        "scale": [
                            1,
                            1,
                            1
                        ],
                        "weightScale": [
                            1,
                            1,
                            1
                        ],
                        "weight": [
                            1,
                            1,
                            1,
                            1
                        ],
                        "weightHard": false,
                        "height": 655.0116577148438,
                        "position": [
                            -348.726806640625,
                            150.83572387695312,
                            -533.5526733398438
                        ],
                        "mirrored": true,
                        "proj": "BP_Bend",
                        "transform": [
                            -0.8462578654289246,
                            -0.02000129222869873,
                            -0.5323978066444397,
                            -348.7267761230469,
                            -0.16752982139587402,
                            0.958595335483551,
                            0.23027943074703217,
                            150.83570861816406,
                            -0.5057481527328491,
                            -0.28406834602355957,
                            0.8145697116851807,
                            533.5526733398438
                        ],
                        "op": "BO_Add",
                        "rotation": -0.9199994206428528,
                        "spec": "/pa/terrain/generic/brushes/unit_cannon_wreckage.json"
                    },
                    {
                        "no_features": false,
                        "mergeable": false,
                        "pathable": false,
                        "flooded": false,
                        "twinId": 48,
                        "scale": [
                            1,
                            1,
                            1
                        ],
                        "weightScale": [
                            1,
                            1,
                            1
                        ],
                        "weight": [
                            1,
                            1,
                            1,
                            1
                        ],
                        "weightHard": false,
                        "height": 657.29443359375,
                        "position": [
                            -334.9278564453125,
                            38.9241943359375,
                            -564.2200317382812
                        ],
                        "mirrored": false,
                        "proj": "BP_Bend",
                        "transform": [
                            0.8048781156539917,
                            0.30417871475219727,
                            -0.5095552802085876,
                            -334.9278869628906,
                            0.3854830265045166,
                            -0.920812726020813,
                            0.059218812733888626,
                            38.924198150634766,
                            -0.4511919319629669,
                            -0.24408887326717377,
                            -0.8583976626396179,
                            -564.2200317382812
                        ],
                        "op": "BO_Add",
                        "rotation": 2.5299980640411377,
                        "spec": "/pa/terrain/generic/brushes/unit_cannon_wreckage.json"
                    },
                    {
                        "no_features": false,
                        "mergeable": false,
                        "pathable": false,
                        "flooded": false,
                        "twinId": 48,
                        "scale": [
                            1,
                            1,
                            1
                        ],
                        "weightScale": [
                            1,
                            1,
                            1
                        ],
                        "weight": [
                            1,
                            1,
                            1,
                            1
                        ],
                        "weightHard": false,
                        "height": 657.29443359375,
                        "position": [
                            -334.9278564453125,
                            38.9241943359375,
                            -564.2200317382812
                        ],
                        "mirrored": true,
                        "proj": "BP_Bend",
                        "transform": [
                            0.8048781156539917,
                            0.30417871475219727,
                            -0.5095552802085876,
                            -334.9278869628906,
                            0.3854830265045166,
                            -0.920812726020813,
                            0.059218812733888626,
                            38.924198150634766,
                            0.4511919319629669,
                            0.24408887326717377,
                            0.8583976626396179,
                            564.2200317382812
                        ],
                        "op": "BO_Add",
                        "rotation": 2.5299980640411377,
                        "spec": "/pa/terrain/generic/brushes/unit_cannon_wreckage.json"
                    },
                    {
                        "no_features": false,
                        "mergeable": false,
                        "pathable": false,
                        "flooded": false,
                        "twinId": 49,
                        "scale": [
                            0.8500000238418579,
                            0.8500000238418579,
                            0.8500000238418579
                        ],
                        "weightScale": [
                            1,
                            1,
                            1
                        ],
                        "weight": [
                            1,
                            1,
                            1,
                            1
                        ],
                        "weightHard": false,
                        "height": 654.791259765625,
                        "position": [
                            -283.4864196777344,
                            251.73329162597656,
                            533.8702392578125
                        ],
                        "mirrored": false,
                        "proj": "BP_Bend",
                        "transform": [
                            0.7622348070144653,
                            0.07793468981981277,
                            -0.36800041794776917,
                            -283.4864196777344,
                            0.07793468981981277,
                            0.7807947397232056,
                            0.32678091526031494,
                            251.7332763671875,
                            0.36800041794776917,
                            -0.32678091526031494,
                            0.693029522895813,
                            533.8701782226562
                        ],
                        "op": "BO_Add",
                        "rotation": 0,
                        "spec": "/pa/terrain/lava/brushes/lava_volcano_04.json"
                    },
                    {
                        "no_features": false,
                        "mergeable": false,
                        "pathable": false,
                        "flooded": false,
                        "twinId": 49,
                        "scale": [
                            0.8500000238418579,
                            0.8500000238418579,
                            0.8500000238418579
                        ],
                        "weightScale": [
                            1,
                            1,
                            1
                        ],
                        "weight": [
                            1,
                            1,
                            1,
                            1
                        ],
                        "weightHard": false,
                        "height": 654.791259765625,
                        "position": [
                            -283.4864196777344,
                            251.73329162597656,
                            533.8702392578125
                        ],
                        "mirrored": true,
                        "proj": "BP_Bend",
                        "transform": [
                            0.7622348070144653,
                            0.07793468981981277,
                            -0.36800041794776917,
                            -283.4864196777344,
                            0.07793468981981277,
                            0.7807947397232056,
                            0.32678091526031494,
                            251.7332763671875,
                            -0.36800041794776917,
                            0.32678091526031494,
                            -0.693029522895813,
                            -533.8701782226562
                        ],
                        "op": "BO_Add",
                        "rotation": 0,
                        "spec": "/pa/terrain/lava/brushes/lava_volcano_04.json"
                    },
                    {
                        "no_features": true,
                        "mergeable": false,
                        "pathable": false,
                        "flooded": false,
                        "twinId": 51,
                        "scale": [
                            1,
                            1,
                            1
                        ],
                        "weightScale": [
                            1,
                            1,
                            1
                        ],
                        "weight": [
                            1,
                            1,
                            1,
                            1
                        ],
                        "weightHard": false,
                        "height": 654.3314819335938,
                        "position": [
                            -245.6280975341797,
